digraph Tree {
node [shape=box, fontname="helvetica"] ;
edge [fontname="helvetica"] ;
0 [label="num__grade <= 1.587\ngini = 0.125\nsamples = 17290\nvalue = [16127, 1163]"] ;
1 [label="num__sqft_living <= 0.857\ngini = 0.061\nsamples = 16012\nvalue = [15510, 502]"] ;
0 -> 1 [labeldistance=2.5, labelangle=45, headlabel="True"] ;
2 [label="cat__zipcode_98004 <= 0.5\ngini = 0.028\nsamples = 14197\nvalue = [13999, 198]"] ;
1 -> 2 ;
3 [label="cat__view_4 <= 0.5\ngini = 0.022\nsamples = 14051\nvalue = [13896, 155]"] ;
2 -> 3 ;
4 [label="cat__zipcode_98039 <= 0.5\ngini = 0.018\nsamples = 13952\nvalue = [13825, 127]"] ;
3 -> 4 ;
5 [label="cat__zipcode_98112 <= 0.5\ngini = 0.017\nsamples = 13941\nvalue = [13822, 119]"] ;
4 -> 5 ;
6 [label="num__grade <= 0.73\ngini = 0.013\nsamples = 13798\nvalue = [13708, 90]"] ;
5 -> 6 ;
7 [label="num__sqft_living15 <= 1.038\ngini = 0.007\nsamples = 12791\nvalue = [12747, 44]"] ;
6 -> 7 ;
8 [label="cat__zipcode_98119 <= 0.5\ngini = 0.004\nsamples = 12491\nvalue = [12463, 28]"] ;
7 -> 8 ;
9 [label="num__sqft_living <= 0.586\ngini = 0.003\nsamples = 12387\nvalue = [12366, 21]"] ;
8 -> 9 ;
10 [label="num__sqft_living15 <= 0.994\ngini = 0.002\nsamples = 11873\nvalue = [11861, 12]"] ;
9 -> 10 ;
11 [label="cat__zipcode_98115 <= 0.5\ngini = 0.002\nsamples = 11847\nvalue = [11836, 11]"] ;
10 -> 11 ;
12 [label="cat__zipcode_98105 <= 0.5\ngini = 0.001\nsamples = 11461\nvalue = [11454, 7]"] ;
11 -> 12 ;
13 [label="cat__zipcode_98109 <= 0.5\ngini = 0.001\nsamples = 11346\nvalue = [11341, 5]"] ;
12 -> 13 ;
14 [label="num__long <= -1.376\ngini = 0.001\nsamples = 11290\nvalue = [11286, 4]"] ;
13 -> 14 ;
15 [label="num__lat <= 0.727\ngini = 0.021\nsamples = 95\nvalue = [94, 1]"] ;
14 -> 15 ;
16 [label="gini = 0.0\nsamples = 93\nvalue = [93, 0]"] ;
15 -> 16 ;
17 [label="gini = 0.5\nsamples = 2\nvalue = [1, 1]"] ;
15 -> 17 ;
18 [label="cat__condition_2 <= 0.5\ngini = 0.001\nsamples = 11195\nvalue = [11192, 3]"] ;
14 -> 18 ;
19 [label="cat__zipcode_98074 <= 0.5\ngini = 0.0\nsamples = 11078\nvalue = [11076, 2]"] ;
18 -> 19 ;
20 [label="cat__zipcode_98103 <= 0.5\ngini = 0.0\nsamples = 10957\nvalue = [10956, 1]"] ;
19 -> 20 ;
21 [label="gini = 0.0\nsamples = 10528\nvalue = [10528, 0]"] ;
20 -> 21 ;
22 [label="num__lat <= 0.645\ngini = 0.005\nsamples = 429\nvalue = [428, 1]"] ;
20 -> 22 ;
23 [label="gini = 0.375\nsamples = 4\nvalue = [3, 1]"] ;
22 -> 23 ;
24 [label="gini = 0.0\nsamples = 425\nvalue = [425, 0]"] ;
22 -> 24 ;
25 [label="num__grade <= -0.983\ngini = 0.016\nsamples = 121\nvalue = [120, 1]"] ;
19 -> 25 ;
26 [label="gini = 0.5\nsamples = 2\nvalue = [1, 1]"] ;
25 -> 26 ;
27 [label="gini = 0.0\nsamples = 119\nvalue = [119, 0]"] ;
25 -> 27 ;
28 [label="num__sqft_living <= 0.38\ngini = 0.017\nsamples = 117\nvalue = [116, 1]"] ;
18 -> 28 ;
29 [label="gini = 0.0\nsamples = 116\nvalue = [116, 0]"] ;
28 -> 29 ;
30 [label="gini = 0.0\nsamples = 1\nvalue = [0, 1]"] ;
28 -> 30 ;
31 [label="num__sqft_above <= 0.739\ngini = 0.035\nsamples = 56\nvalue = [55, 1]"] ;
13 -> 31 ;
32 [label="gini = 0.0\nsamples = 55\nvalue = [55, 0]"] ;
31 -> 32 ;
33 [label="gini = 0.0\nsamples = 1\nvalue = [0, 1]"] ;
31 -> 33 ;
34 [label="cat__view_3 <= 0.5\ngini = 0.034\nsamples = 115\nvalue = [113, 2]"] ;
12 -> 34 ;
35 [label="cat__view_1 <= 0.5\ngini = 0.017\nsamples = 114\nvalue = [113, 1]"] ;
34 -> 35 ;
36 [label="gini = 0.0\nsamples = 112\nvalue = [112, 0]"] ;
35 -> 36 ;
37 [label="gini = 0.5\nsamples = 2\nvalue = [1, 1]"] ;
35 -> 37 ;
38 [label="gini = 0.0\nsamples = 1\nvalue = [0, 1]"] ;
34 -> 38 ;
39 [label="num__sqft_above <= 0.459\ngini = 0.021\nsamples = 386\nvalue = [382, 4]"] ;
11 -> 39 ;
40 [label="num__sqft_living <= 0.539\ngini = 0.01\nsamples = 380\nvalue = [378, 2]"] ;
39 -> 40 ;
41 [label="num__sqft_living15 <= 0.729\ngini = 0.005\nsamples = 377\nvalue = [376, 1]"] ;
40 -> 41 ;
42 [label="gini = 0.0\nsamples = 374\nvalue = [374, 0]"] ;
41 -> 42 ;
43 [label="gini = 0.444\nsamples = 3\nvalue = [2, 1]"] ;
41 -> 43 ;
44 [label="gini = 0.444\nsamples = 3\nvalue = [2, 1]"] ;
40 -> 44 ;
45 [label="gini = 0.444\nsamples = 6\nvalue = [4, 2]"] ;
39 -> 45 ;
46 [label="cat__condition_5 <= 0.5\ngini = 0.074\nsamples = 26\nvalue = [25, 1]"] ;
10 -> 46 ;
47 [label="gini = 0.0\nsamples = 25\nvalue = [25, 0]"] ;
46 -> 47 ;
48 [label="gini = 0.0\nsamples = 1\nvalue = [0, 1]"] ;
46 -> 48 ;
49 [label="cat__zipcode_98103 <= 0.5\ngini = 0.034\nsamples = 514\nvalue = [505, 9]"] ;
9 -> 49 ;
50 [label="cat__zipcode_98109 <= 0.5\ngini = 0.023\nsamples = 507\nvalue = [501, 6]"] ;
49 -> 50 ;
51 [label="num__long <= -1.404\ngini = 0.02\nsamples = 506\nvalue = [501, 5]"] ;
50 -> 51 ;
52 [label="gini = 0.444\nsamples = 3\nvalue = [2, 1]"] ;
51 -> 52 ;
53 [label="cat__zipcode_98040 <= 0.5\ngini = 0.016\nsamples = 503\nvalue = [499, 4]"] ;
51 -> 53 ;
54 [label="cat__view_2 <= 0.5\ngini = 0.012\nsamples = 498\nvalue = [495, 3]"] ;
53 -> 54 ;
55 [label="cat__zipcode_98144 <= 0.5\ngini = 0.004\nsamples = 475\nvalue = [474, 1]"] ;
54 -> 55 ;
56 [label="gini = 0.0\nsamples = 470\nvalue = [470, 0]"] ;
55 -> 56 ;
57 [label="gini = 0.32\nsamples = 5\nvalue = [4, 1]"] ;
55 -> 57 ;
58 [label="cat__zipcode_98052 <= 0.5\ngini = 0.159\nsamples = 23\nvalue = [21, 2]"] ;
54 -> 58 ;
59 [label="cat__condition_5 <= 0.5\ngini = 0.087\nsamples = 22\nvalue = [21, 1]"] ;
58 -> 59 ;
60 [label="gini = 0.0\nsamples = 20\nvalue = [20, 0]"] ;
59 -> 60 ;
61 [label="gini = 0.5\nsamples = 2\nvalue = [1, 1]"] ;
59 -> 61 ;
62 [label="gini = 0.0\nsamples = 1\nvalue = [0, 1]"] ;
58 -> 62 ;
63 [label="gini = 0.32\nsamples = 5\nvalue = [4, 1]"] ;
53 -> 63 ;
64 [label="gini = 0.0\nsamples = 1\nvalue = [0, 1]"] ;
50 -> 64 ;
65 [label="gini = 0.49\nsamples = 7\nvalue = [4, 3]"] ;
49 -> 65 ;
66 [label="cat__view_3 <= 0.5\ngini = 0.126\nsamples = 104\nvalue = [97, 7]"] ;
8 -> 66 ;
67 [label="num__yr_renovated <= 4.787\ngini = 0.058\nsamples = 100\nvalue = [97, 3]"] ;
66 -> 67 ;
68 [label="num__lat <= 0.674\ngini = 0.04\nsamples = 99\nvalue = [97, 2]"] ;
67 -> 68 ;
69 [label="num__sqft_living15 <= 0.389\ngini = 0.02\nsamples = 97\nvalue = [96, 1]"] ;
68 -> 69 ;
70 [label="gini = 0.0\nsamples = 94\nvalue = [94, 0]"] ;
69 -> 70 ;
71 [label="gini = 0.444\nsamples = 3\nvalue = [2, 1]"] ;
69 -> 71 ;
72 [label="gini = 0.5\nsamples = 2\nvalue = [1, 1]"] ;
68 -> 72 ;
73 [label="gini = 0.0\nsamples = 1\nvalue = [0, 1]"] ;
67 -> 73 ;
74 [label="gini = 0.0\nsamples = 4\nvalue = [0, 4]"] ;
66 -> 74 ;
75 [label="cat__view_0 <= 0.5\ngini = 0.101\nsamples = 300\nvalue = [284, 16]"] ;
7 -> 75 ;
76 [label="num__sqft_above <= 0.131\ngini = 0.308\nsamples = 63\nvalue = [51, 12]"] ;
75 -> 76 ;
77 [label="num__sqft_lot <= -0.313\ngini = 0.162\nsamples = 45\nvalue = [41, 4]"] ;
76 -> 77 ;
78 [label="gini = 0.0\nsamples = 1\nvalue = [0, 1]"] ;
77 -> 78 ;
79 [label="cat__zipcode_98115 <= 0.5\ngini = 0.127\nsamples = 44\nvalue = [41, 3]"] ;
77 -> 79 ;
80 [label="num__bathrooms <= 0.347\ngini = 0.091\nsamples = 42\nvalue = [40, 2]"] ;
79 -> 80 ;
81 [label="gini = 0.0\nsamples = 33\nvalue = [33, 0]"] ;
80 -> 81 ;
82 [label="gini = 0.346\nsamples = 9\nvalue = [7, 2]"] ;
80 -> 82 ;
83 [label="gini = 0.5\nsamples = 2\nvalue = [1, 1]"] ;
79 -> 83 ;
84 [label="num__sqft_living15 <= 1.385\ngini = 0.494\nsamples = 18\nvalue = [10, 8]"] ;
76 -> 84 ;
85 [label="gini = 0.346\nsamples = 9\nvalue = [7, 2]"] ;
84 -> 85 ;
86 [label="gini = 0.444\nsamples = 9\nvalue = [3, 6]"] ;
84 -> 86 ;
87 [label="cat__zipcode_98122 <= 0.5\ngini = 0.033\nsamples = 237\nvalue = [233, 4]"] ;
75 -> 87 ;
88 [label="cat__zipcode_98033 <= 0.5\ngini = 0.025\nsamples = 236\nvalue = [233, 3]"] ;
87 -> 88 ;
89 [label="cat__condition_5 <= 0.5\ngini = 0.017\nsamples = 233\nvalue = [231, 2]"] ;
88 -> 89 ;
90 [label="gini = 0.0\nsamples = 221\nvalue = [221, 0]"] ;
89 -> 90 ;
91 [label="num__floors <= 0.476\ngini = 0.278\nsamples = 12\nvalue = [10, 2]"] ;
89 -> 91 ;
92 [label="gini = 0.0\nsamples = 9\nvalue = [9, 0]"] ;
91 -> 92 ;
93 [label="gini = 0.444\nsamples = 3\nvalue = [1, 2]"] ;
91 -> 93 ;
94 [label="gini = 0.444\nsamples = 3\nvalue = [2, 1]"] ;
88 -> 94 ;
95 [label="gini = 0.0\nsamples = 1\nvalue = [0, 1]"] ;
87 -> 95 ;
96 [label="num__yr_built <= -0.593\ngini = 0.087\nsamples = 1007\nvalue = [961, 46]"] ;
6 -> 96 ;
97 [label="num__sqft_living15 <= 0.994\ngini = 0.418\nsamples = 84\nvalue = [59, 25]"] ;
96 -> 97 ;
98 [label="num__sqft_basement <= 1.736\ngini = 0.356\nsamples = 69\nvalue = [53, 16]"] ;
97 -> 98 ;
99 [label="num__sqft_living <= 0.599\ngini = 0.305\nsamples = 64\nvalue = [52, 12]"] ;
98 -> 99 ;
100 [label="cat__view_3 <= 0.5\ngini = 0.211\nsamples = 50\nvalue = [44, 6]"] ;
99 -> 100 ;
101 [label="cat__zipcode_98115 <= 0.5\ngini = 0.156\nsamples = 47\nvalue = [43, 4]"] ;
100 -> 101 ;
102 [label="cat__zipcode_98119 <= 0.5\ngini = 0.122\nsamples = 46\nvalue = [43, 3]"] ;
101 -> 102 ;
103 [label="num__sqft_basement <= 1.263\ngini = 0.048\nsamples = 41\nvalue = [40, 1]"] ;
102 -> 103 ;
104 [label="gini = 0.0\nsamples = 37\nvalue = [37, 0]"] ;
103 -> 104 ;
105 [label="gini = 0.375\nsamples = 4\nvalue = [3, 1]"] ;
103 -> 105 ;
106 [label="gini = 0.48\nsamples = 5\nvalue = [3, 2]"] ;
102 -> 106 ;
107 [label="gini = 0.0\nsamples = 1\nvalue = [0, 1]"] ;
101 -> 107 ;
108 [label="gini = 0.444\nsamples = 3\nvalue = [1, 2]"] ;
100 -> 108 ;
109 [label="num__yr_built <= -2.089\ngini = 0.49\nsamples = 14\nvalue = [8, 6]"] ;
99 -> 109 ;
110 [label="gini = 0.278\nsamples = 6\nvalue = [1, 5]"] ;
109 -> 110 ;
111 [label="gini = 0.219\nsamples = 8\nvalue = [7, 1]"] ;
109 -> 111 ;
112 [label="gini = 0.32\nsamples = 5\nvalue = [1, 4]"] ;
98 -> 112 ;
113 [label="num__lat <= 0.62\ngini = 0.48\nsamples = 15\nvalue = [6, 9]"] ;
97 -> 113 ;
114 [label="num__sqft_lot <= -0.223\ngini = 0.48\nsamples = 10\nvalue = [6, 4]"] ;
113 -> 114 ;
115 [label="gini = 0.444\nsamples = 6\nvalue = [2, 4]"] ;
114 -> 115 ;
116 [label="gini = 0.0\nsamples = 4\nvalue = [4, 0]"] ;
114 -> 116 ;
117 [label="gini = 0.0\nsamples = 5\nvalue = [0, 5]"] ;
113 -> 117 ;
118 [label="num__sqft_basement <= 2.278\ngini = 0.044\nsamples = 923\nvalue = [902, 21]"] ;
96 -> 118 ;
119 [label="cat__zipcode_98040 <= 0.5\ngini = 0.042\nsamples = 922\nvalue = [902, 20]"] ;
118 -> 119 ;
120 [label="cat__zipcode_98033 <= 0.5\ngini = 0.035\nsamples = 899\nvalue = [883, 16]"] ;
119 -> 120 ;
121 [label="num__long <= -0.775\ngini = 0.027\nsamples = 873\nvalue = [861, 12]"] ;
120 -> 121 ;
122 [label="num__long <= -0.888\ngini = 0.125\nsamples = 149\nvalue = [139, 10]"] ;
121 -> 122 ;
123 [label="num__sqft_living <= 0.638\ngini = 0.059\nsamples = 131\nvalue = [127, 4]"] ;
122 -> 123 ;
124 [label="gini = 0.0\nsamples = 110\nvalue = [110, 0]"] ;
123 -> 124 ;
125 [label="num__sqft_lot <= -0.292\ngini = 0.308\nsamples = 21\nvalue = [17, 4]"] ;
123 -> 125 ;
126 [label="gini = 0.0\nsamples = 3\nvalue = [0, 3]"] ;
125 -> 126 ;
127 [label="cat__zipcode_98107 <= 0.5\ngini = 0.105\nsamples = 18\nvalue = [17, 1]"] ;
125 -> 127 ;
128 [label="gini = 0.0\nsamples = 17\nvalue = [17, 0]"] ;
127 -> 128 ;
129 [label="gini = 0.0\nsamples = 1\nvalue = [0, 1]"] ;
127 -> 129 ;
130 [label="num__yr_built <= 1.006\ngini = 0.444\nsamples = 18\nvalue = [12, 6]"] ;
122 -> 130 ;
131 [label="gini = 0.0\nsamples = 7\nvalue = [7, 0]"] ;
130 -> 131 ;
132 [label="num__sqft_living <= -0.167\ngini = 0.496\nsamples = 11\nvalue = [5, 6]"] ;
130 -> 132 ;
133 [label="gini = 0.0\nsamples = 4\nvalue = [4, 0]"] ;
132 -> 133 ;
134 [label="gini = 0.245\nsamples = 7\nvalue = [1, 6]"] ;
132 -> 134 ;
135 [label="cat__waterfront_0 <= 0.5\ngini = 0.006\nsamples = 724\nvalue = [722, 2]"] ;
121 -> 135 ;
136 [label="gini = 0.0\nsamples = 1\nvalue = [0, 1]"] ;
135 -> 136 ;
137 [label="cat__zipcode_98005 <= 0.5\ngini = 0.003\nsamples = 723\nvalue = [722, 1]"] ;
135 -> 137 ;
138 [label="gini = 0.0\nsamples = 705\nvalue = [705, 0]"] ;
137 -> 138 ;
139 [label="num__yr_built <= 0.564\ngini = 0.105\nsamples = 18\nvalue = [17, 1]"] ;
137 -> 139 ;
140 [label="gini = 0.0\nsamples = 17\nvalue = [17, 0]"] ;
139 -> 140 ;
141 [label="gini = 0.0\nsamples = 1\nvalue = [0, 1]"] ;
139 -> 141 ;
142 [label="num__long <= 0.053\ngini = 0.26\nsamples = 26\nvalue = [22, 4]"] ;
120 -> 142 ;
143 [label="gini = 0.0\nsamples = 3\nvalue = [0, 3]"] ;
142 -> 143 ;
144 [label="num__sqft_lot15 <= -0.078\ngini = 0.083\nsamples = 23\nvalue = [22, 1]"] ;
142 -> 144 ;
145 [label="gini = 0.0\nsamples = 20\nvalue = [20, 0]"] ;
144 -> 145 ;
146 [label="gini = 0.444\nsamples = 3\nvalue = [2, 1]"] ;
144 -> 146 ;
147 [label="num__sqft_living <= 0.506\ngini = 0.287\nsamples = 23\nvalue = [19, 4]"] ;
119 -> 147 ;
148 [label="num__bedrooms <= -0.955\ngini = 0.105\nsamples = 18\nvalue = [17, 1]"] ;
147 -> 148 ;
149 [label="gini = 0.0\nsamples = 1\nvalue = [0, 1]"] ;
148 -> 149 ;
150 [label="gini = 0.0\nsamples = 17\nvalue = [17, 0]"] ;
148 -> 150 ;
151 [label="gini = 0.48\nsamples = 5\nvalue = [2, 3]"] ;
147 -> 151 ;
152 [label="gini = 0.0\nsamples = 1\nvalue = [0, 1]"] ;
118 -> 152 ;
153 [label="num__sqft_above <= 0.143\ngini = 0.323\nsamples = 143\nvalue = [114, 29]"] ;
5 -> 153 ;
154 [label="num__sqft_lot15 <= -0.217\ngini = 0.164\nsamples = 111\nvalue = [101, 10]"] ;
153 -> 154 ;
155 [label="num__lat <= 0.596\ngini = 0.136\nsamples = 109\nvalue = [101, 8]"] ;
154 -> 155 ;
156 [label="num__sqft_living <= 0.161\ngini = 0.092\nsamples = 104\nvalue = [99, 5]"] ;
155 -> 156 ;
157 [label="num__lat <= 0.573\ngini = 0.023\nsamples = 86\nvalue = [85, 1]"] ;
156 -> 157 ;
158 [label="gini = 0.0\nsamples = 80\nvalue = [80, 0]"] ;
157 -> 158 ;
159 [label="gini = 0.278\nsamples = 6\nvalue = [5, 1]"] ;
157 -> 159 ;
160 [label="num__sqft_living15 <= 0.522\ngini = 0.346\nsamples = 18\nvalue = [14, 4]"] ;
156 -> 160 ;
161 [label="num__sqft_above <= -0.331\ngini = 0.153\nsamples = 12\nvalue = [11, 1]"] ;
160 -> 161 ;
162 [label="gini = 0.5\nsamples = 2\nvalue = [1, 1]"] ;
161 -> 162 ;
163 [label="gini = 0.0\nsamples = 10\nvalue = [10, 0]"] ;
161 -> 163 ;
164 [label="gini = 0.5\nsamples = 6\nvalue = [3, 3]"] ;
160 -> 164 ;
165 [label="gini = 0.48\nsamples = 5\nvalue = [2, 3]"] ;
155 -> 165 ;
166 [label="gini = 0.0\nsamples = 2\nvalue = [0, 2]"] ;
154 -> 166 ;
167 [label="num__sqft_lot15 <= -0.308\ngini = 0.482\nsamples = 32\nvalue = [13, 19]"] ;
153 -> 167 ;
168 [label="num__long <= -0.584\ngini = 0.426\nsamples = 13\nvalue = [9, 4]"] ;
167 -> 168 ;
169 [label="num__bedrooms <= 0.149\ngini = 0.298\nsamples = 11\nvalue = [9, 2]"] ;
168 -> 169 ;
170 [label="gini = 0.0\nsamples = 6\nvalue = [6, 0]"] ;
169 -> 170 ;
171 [label="gini = 0.48\nsamples = 5\nvalue = [3, 2]"] ;
169 -> 171 ;
172 [label="gini = 0.0\nsamples = 2\nvalue = [0, 2]"] ;
168 -> 172 ;
173 [label="num__sqft_living <= 0.692\ngini = 0.332\nsamples = 19\nvalue = [4, 15]"] ;
167 -> 173 ;
174 [label="num__floors <= 1.402\ngini = 0.124\nsamples = 15\nvalue = [1, 14]"] ;
173 -> 174 ;
175 [label="gini = 0.0\nsamples = 14\nvalue = [0, 14]"] ;
174 -> 175 ;
176 [label="gini = 0.0\nsamples = 1\nvalue = [1, 0]"] ;
174 -> 176 ;
177 [label="gini = 0.375\nsamples = 4\nvalue = [3, 1]"] ;
173 -> 177 ;
178 [label="num__bathrooms <= -0.305\ngini = 0.397\nsamples = 11\nvalue = [3, 8]"] ;
4 -> 178 ;
179 [label="gini = 0.0\nsamples = 3\nvalue = [3, 0]"] ;
178 -> 179 ;
180 [label="gini = 0.0\nsamples = 8\nvalue = [0, 8]"] ;
178 -> 180 ;
181 [label="num__sqft_living15 <= 0.707\ngini = 0.406\nsamples = 99\nvalue = [71, 28]"] ;
3 -> 181 ;
182 [label="num__lat <= 0.818\ngini = 0.212\nsamples = 58\nvalue = [51, 7]"] ;
181 -> 182 ;
183 [label="cat__zipcode_98075 <= 0.5\ngini = 0.075\nsamples = 51\nvalue = [49, 2]"] ;
182 -> 183 ;
184 [label="cat__zipcode_98008 <= 0.5\ngini = 0.039\nsamples = 50\nvalue = [49, 1]"] ;
183 -> 184 ;
185 [label="gini = 0.0\nsamples = 49\nvalue = [49, 0]"] ;
184 -> 185 ;
186 [label="gini = 0.0\nsamples = 1\nvalue = [0, 1]"] ;
184 -> 186 ;
187 [label="gini = 0.0\nsamples = 1\nvalue = [0, 1]"] ;
183 -> 187 ;
188 [label="gini = 0.408\nsamples = 7\nvalue = [2, 5]"] ;
182 -> 188 ;
189 [label="cat__waterfront_1 <= 0.5\ngini = 0.5\nsamples = 41\nvalue = [20, 21]"] ;
181 -> 189 ;
190 [label="num__sqft_basement <= 1.838\ngini = 0.413\nsamples = 24\nvalue = [17, 7]"] ;
189 -> 190 ;
191 [label="num__yr_built <= -1.052\ngini = 0.255\nsamples = 20\nvalue = [17, 3]"] ;
190 -> 191 ;
192 [label="gini = 0.5\nsamples = 6\nvalue = [3, 3]"] ;
191 -> 192 ;
193 [label="gini = 0.0\nsamples = 14\nvalue = [14, 0]"] ;
191 -> 193 ;
194 [label="gini = 0.0\nsamples = 4\nvalue = [0, 4]"] ;
190 -> 194 ;
195 [label="num__sqft_lot15 <= 0.628\ngini = 0.291\nsamples = 17\nvalue = [3, 14]"] ;
189 -> 195 ;
196 [label="num__bedrooms <= 2.357\ngini = 0.124\nsamples = 15\nvalue = [1, 14]"] ;
195 -> 196 ;
197 [label="gini = 0.0\nsamples = 14\nvalue = [0, 14]"] ;
196 -> 197 ;
198 [label="gini = 0.0\nsamples = 1\nvalue = [1, 0]"] ;
196 -> 198 ;
199 [label="gini = 0.0\nsamples = 2\nvalue = [2, 0]"] ;
195 -> 199 ;
200 [label="num__sqft_above <= -0.021\ngini = 0.416\nsamples = 146\nvalue = [103, 43]"] ;
2 -> 200 ;
201 [label="num__sqft_living15 <= 1.223\ngini = 0.201\nsamples = 97\nvalue = [86, 11]"] ;
200 -> 201 ;
202 [label="num__bathrooms <= 1.488\ngini = 0.093\nsamples = 82\nvalue = [78, 4]"] ;
201 -> 202 ;
203 [label="num__yr_built <= -1.307\ngini = 0.071\nsamples = 81\nvalue = [78, 3]"] ;
202 -> 203 ;
204 [label="gini = 0.0\nsamples = 1\nvalue = [0, 1]"] ;
203 -> 204 ;
205 [label="cat__view_2 <= 0.5\ngini = 0.049\nsamples = 80\nvalue = [78, 2]"] ;
203 -> 205 ;
206 [label="cat__condition_5 <= 0.5\ngini = 0.025\nsamples = 79\nvalue = [78, 1]"] ;
205 -> 206 ;
207 [label="gini = 0.0\nsamples = 76\nvalue = [76, 0]"] ;
206 -> 207 ;
208 [label="gini = 0.444\nsamples = 3\nvalue = [2, 1]"] ;
206 -> 208 ;
209 [label="gini = 0.0\nsamples = 1\nvalue = [0, 1]"] ;
205 -> 209 ;
210 [label="gini = 0.0\nsamples = 1\nvalue = [0, 1]"] ;
202 -> 210 ;
211 [label="num__bathrooms <= 0.184\ngini = 0.498\nsamples = 15\nvalue = [8, 7]"] ;
201 -> 211 ;
212 [label="num__sqft_lot <= -0.045\ngini = 0.397\nsamples = 11\nvalue = [8, 3]"] ;
211 -> 212 ;
213 [label="gini = 0.5\nsamples = 6\nvalue = [3, 3]"] ;
212 -> 213 ;
214 [label="gini = 0.0\nsamples = 5\nvalue = [5, 0]"] ;
212 -> 214 ;
215 [label="gini = 0.0\nsamples = 4\nvalue = [0, 4]"] ;
211 -> 215 ;
216 [label="num__long <= 0.045\ngini = 0.453\nsamples = 49\nvalue = [17, 32]"] ;
200 -> 216 ;
217 [label="num__sqft_lot15 <= -0.281\ngini = 0.083\nsamples = 23\nvalue = [1, 22]"] ;
216 -> 217 ;
218 [label="gini = 0.0\nsamples = 1\nvalue = [1, 0]"] ;
217 -> 218 ;
219 [label="gini = 0.0\nsamples = 22\nvalue = [0, 22]"] ;
217 -> 219 ;
220 [label="num__sqft_living15 <= 0.161\ngini = 0.473\nsamples = 26\nvalue = [16, 10]"] ;
216 -> 220 ;
221 [label="gini = 0.0\nsamples = 8\nvalue = [8, 0]"] ;
220 -> 221 ;
222 [label="num__grade <= 0.73\ngini = 0.494\nsamples = 18\nvalue = [8, 10]"] ;
220 -> 222 ;
223 [label="num__lat <= 0.207\ngini = 0.42\nsamples = 10\nvalue = [7, 3]"] ;
222 -> 223 ;
224 [label="gini = 0.48\nsamples = 5\nvalue = [2, 3]"] ;
223 -> 224 ;
225 [label="gini = 0.0\nsamples = 5\nvalue = [5, 0]"] ;
223 -> 225 ;
226 [label="gini = 0.219\nsamples = 8\nvalue = [1, 7]"] ;
222 -> 226 ;
227 [label="num__long <= 0.152\ngini = 0.279\nsamples = 1815\nvalue = [1511, 304]"] ;
1 -> 227 ;
228 [label="num__lat <= 0.141\ngini = 0.436\nsamples = 791\nvalue = [537, 254]"] ;
227 -> 228 ;
229 [label="cat__zipcode_98040 <= 0.5\ngini = 0.212\nsamples = 316\nvalue = [278, 38]"] ;
228 -> 229 ;
230 [label="cat__view_4 <= 0.5\ngini = 0.102\nsamples = 277\nvalue = [262, 15]"] ;
229 -> 230 ;
231 [label="cat__zipcode_98136 <= 0.5\ngini = 0.059\nsamples = 262\nvalue = [254, 8]"] ;
230 -> 231 ;
232 [label="num__yr_built <= -1.596\ngini = 0.04\nsamples = 248\nvalue = [243, 5]"] ;
231 -> 232 ;
233 [label="num__sqft_living15 <= 1.378\ngini = 0.266\nsamples = 19\nvalue = [16, 3]"] ;
232 -> 233 ;
234 [label="num__yr_built <= -1.647\ngini = 0.111\nsamples = 17\nvalue = [16, 1]"] ;
233 -> 234 ;
235 [label="gini = 0.0\nsamples = 16\nvalue = [16, 0]"] ;
234 -> 235 ;
236 [label="gini = 0.0\nsamples = 1\nvalue = [0, 1]"] ;
234 -> 236 ;
237 [label="gini = 0.0\nsamples = 2\nvalue = [0, 2]"] ;
233 -> 237 ;
238 [label="num__yr_renovated <= 4.784\ngini = 0.017\nsamples = 229\nvalue = [227, 2]"] ;
232 -> 238 ;
239 [label="num__yr_built <= -1.001\ngini = 0.009\nsamples = 224\nvalue = [223, 1]"] ;
238 -> 239 ;
240 [label="cat__view_3 <= 0.5\ngini = 0.153\nsamples = 12\nvalue = [11, 1]"] ;
239 -> 240 ;
241 [label="gini = 0.0\nsamples = 11\nvalue = [11, 0]"] ;
240 -> 241 ;
242 [label="gini = 0.0\nsamples = 1\nvalue = [0, 1]"] ;
240 -> 242 ;
243 [label="gini = 0.0\nsamples = 212\nvalue = [212, 0]"] ;
239 -> 243 ;
244 [label="gini = 0.32\nsamples = 5\nvalue = [4, 1]"] ;
238 -> 244 ;
245 [label="num__long <= -1.209\ngini = 0.337\nsamples = 14\nvalue = [11, 3]"] ;
231 -> 245 ;
246 [label="num__long <= -1.291\ngini = 0.153\nsamples = 12\nvalue = [11, 1]"] ;
245 -> 246 ;
247 [label="gini = 0.0\nsamples = 1\nvalue = [0, 1]"] ;
246 -> 247 ;
248 [label="gini = 0.0\nsamples = 11\nvalue = [11, 0]"] ;
246 -> 248 ;
249 [label="gini = 0.0\nsamples = 2\nvalue = [0, 2]"] ;
245 -> 249 ;
250 [label="num__sqft_basement <= 3.146\ngini = 0.498\nsamples = 15\nvalue = [8, 7]"] ;
230 -> 250 ;
251 [label="num__sqft_basement <= 2.108\ngini = 0.444\nsamples = 12\nvalue = [8, 4]"] ;
250 -> 251 ;
252 [label="gini = 0.444\nsamples = 6\nvalue = [2, 4]"] ;
251 -> 252 ;
253 [label="gini = 0.0\nsamples = 6\nvalue = [6, 0]"] ;
251 -> 253 ;
254 [label="gini = 0.0\nsamples = 3\nvalue = [0, 3]"] ;
250 -> 254 ;
255 [label="num__lat <= -0.065\ngini = 0.484\nsamples = 39\nvalue = [16, 23]"] ;
229 -> 255 ;
256 [label="num__sqft_lot15 <= -0.069\ngini = 0.172\nsamples = 21\nvalue = [2, 19]"] ;
255 -> 256 ;
257 [label="gini = 0.0\nsamples = 2\nvalue = [2, 0]"] ;
256 -> 257 ;
258 [label="gini = 0.0\nsamples = 19\nvalue = [0, 19]"] ;
256 -> 258 ;
259 [label="num__sqft_living <= 1.278\ngini = 0.346\nsamples = 18\nvalue = [14, 4]"] ;
255 -> 259 ;
260 [label="gini = 0.0\nsamples = 10\nvalue = [10, 0]"] ;
259 -> 260 ;
261 [label="gini = 0.5\nsamples = 8\nvalue = [4, 4]"] ;
259 -> 261 ;
262 [label="num__lat <= 0.928\ngini = 0.496\nsamples = 475\nvalue = [259, 216]"] ;
228 -> 262 ;
263 [label="num__sqft_living15 <= 0.493\ngini = 0.442\nsamples = 291\nvalue = [96, 195]"] ;
262 -> 263 ;
264 [label="num__yr_built <= 1.176\ngini = 0.496\nsamples = 152\nvalue = [83, 69]"] ;
263 -> 264 ;
265 [label="num__sqft_lot15 <= -0.231\ngini = 0.458\nsamples = 121\nvalue = [78, 43]"] ;
264 -> 265 ;
266 [label="num__lat <= 0.622\ngini = 0.419\nsamples = 107\nvalue = [75, 32]"] ;
265 -> 266 ;
267 [label="num__lat <= 0.372\ngini = 0.492\nsamples = 57\nvalue = [32, 25]"] ;
266 -> 267 ;
268 [label="num__lat <= 0.17\ngini = 0.33\nsamples = 24\nvalue = [19, 5]"] ;
267 -> 268 ;
269 [label="gini = 0.375\nsamples = 4\nvalue = [1, 3]"] ;
268 -> 269 ;
270 [label="num__sqft_living <= 2.472\ngini = 0.18\nsamples = 20\nvalue = [18, 2]"] ;
268 -> 270 ;
271 [label="cat__view_4 <= 0.5\ngini = 0.1\nsamples = 19\nvalue = [18, 1]"] ;
270 -> 271 ;
272 [label="gini = 0.0\nsamples = 17\nvalue = [17, 0]"] ;
271 -> 272 ;
273 [label="gini = 0.5\nsamples = 2\nvalue = [1, 1]"] ;
271 -> 273 ;
274 [label="gini = 0.0\nsamples = 1\nvalue = [0, 1]"] ;
270 -> 274 ;
275 [label="num__sqft_lot <= -0.239\ngini = 0.478\nsamples = 33\nvalue = [13, 20]"] ;
267 -> 275 ;
276 [label="num__sqft_lot15 <= -0.327\ngini = 0.497\nsamples = 24\nvalue = [13, 11]"] ;
275 -> 276 ;
277 [label="gini = 0.219\nsamples = 8\nvalue = [7, 1]"] ;
276 -> 277 ;
278 [label="num__sqft_above <= 1.128\ngini = 0.469\nsamples = 16\nvalue = [6, 10]"] ;
276 -> 278 ;
279 [label="num__sqft_basement <= 1.116\ngini = 0.355\nsamples = 13\nvalue = [3, 10]"] ;
278 -> 279 ;
280 [label="gini = 0.444\nsamples = 3\nvalue = [2, 1]"] ;
279 -> 280 ;
281 [label="num__sqft_basement <= 3.496\ngini = 0.18\nsamples = 10\nvalue = [1, 9]"] ;
279 -> 281 ;
282 [label="gini = 0.0\nsamples = 9\nvalue = [0, 9]"] ;
281 -> 282 ;
283 [label="gini = 0.0\nsamples = 1\nvalue = [1, 0]"] ;
281 -> 283 ;
284 [label="gini = 0.0\nsamples = 3\nvalue = [3, 0]"] ;
278 -> 284 ;
285 [label="gini = 0.0\nsamples = 9\nvalue = [0, 9]"] ;
275 -> 285 ;
286 [label="num__sqft_lot <= -0.174\ngini = 0.241\nsamples = 50\nvalue = [43, 7]"] ;
266 -> 286 ;
287 [label="num__sqft_above <= 1.743\ngini = 0.187\nsamples = 48\nvalue = [43, 5]"] ;
286 -> 287 ;
288 [label="num__long <= -0.633\ngini = 0.156\nsamples = 47\nvalue = [43, 4]"] ;
287 -> 288 ;
289 [label="num__sqft_above <= 0.058\ngini = 0.054\nsamples = 36\nvalue = [35, 1]"] ;
288 -> 289 ;
290 [label="gini = 0.375\nsamples = 4\nvalue = [3, 1]"] ;
289 -> 290 ;
291 [label="gini = 0.0\nsamples = 32\nvalue = [32, 0]"] ;
289 -> 291 ;
292 [label="num__floors <= 0.476\ngini = 0.397\nsamples = 11\nvalue = [8, 3]"] ;
288 -> 292 ;
293 [label="gini = 0.0\nsamples = 5\nvalue = [5, 0]"] ;
292 -> 293 ;
294 [label="gini = 0.5\nsamples = 6\nvalue = [3, 3]"] ;
292 -> 294 ;
295 [label="gini = 0.0\nsamples = 1\nvalue = [0, 1]"] ;
287 -> 295 ;
296 [label="gini = 0.0\nsamples = 2\nvalue = [0, 2]"] ;
286 -> 296 ;
297 [label="num__sqft_living15 <= 0.124\ngini = 0.337\nsamples = 14\nvalue = [3, 11]"] ;
265 -> 297 ;
298 [label="num__bathrooms <= 2.304\ngini = 0.165\nsamples = 11\nvalue = [1, 10]"] ;
297 -> 298 ;
299 [label="gini = 0.0\nsamples = 10\nvalue = [0, 10]"] ;
298 -> 299 ;
300 [label="gini = 0.0\nsamples = 1\nvalue = [1, 0]"] ;
298 -> 300 ;
301 [label="gini = 0.444\nsamples = 3\nvalue = [2, 1]"] ;
297 -> 301 ;
302 [label="num__long <= -1.266\ngini = 0.271\nsamples = 31\nvalue = [5, 26]"] ;
264 -> 302 ;
303 [label="gini = 0.444\nsamples = 3\nvalue = [2, 1]"] ;
302 -> 303 ;
304 [label="num__sqft_living <= 1.152\ngini = 0.191\nsamples = 28\nvalue = [3, 25]"] ;
302 -> 304 ;
305 [label="gini = 0.48\nsamples = 5\nvalue = [2, 3]"] ;
304 -> 305 ;
306 [label="num__yr_built <= 1.482\ngini = 0.083\nsamples = 23\nvalue = [1, 22]"] ;
304 -> 306 ;
307 [label="gini = 0.0\nsamples = 21\nvalue = [0, 21]"] ;
306 -> 307 ;
308 [label="gini = 0.5\nsamples = 2\nvalue = [1, 1]"] ;
306 -> 308 ;
309 [label="num__bathrooms <= 0.021\ngini = 0.17\nsamples = 139\nvalue = [13, 126]"] ;
263 -> 309 ;
310 [label="num__lat <= 0.61\ngini = 0.486\nsamples = 12\nvalue = [5, 7]"] ;
309 -> 310 ;
311 [label="gini = 0.219\nsamples = 8\nvalue = [1, 7]"] ;
310 -> 311 ;
312 [label="gini = 0.0\nsamples = 4\nvalue = [4, 0]"] ;
310 -> 312 ;
313 [label="num__yr_built <= -0.184\ngini = 0.118\nsamples = 127\nvalue = [8, 119]"] ;
309 -> 313 ;
314 [label="num__bedrooms <= 3.461\ngini = 0.041\nsamples = 95\nvalue = [2, 93]"] ;
313 -> 314 ;
315 [label="num__long <= -1.358\ngini = 0.021\nsamples = 93\nvalue = [1, 92]"] ;
314 -> 315 ;
316 [label="gini = 0.375\nsamples = 4\nvalue = [1, 3]"] ;
315 -> 316 ;
317 [label="gini = 0.0\nsamples = 89\nvalue = [0, 89]"] ;
315 -> 317 ;
318 [label="gini = 0.5\nsamples = 2\nvalue = [1, 1]"] ;
314 -> 318 ;
319 [label="num__sqft_basement <= 2.447\ngini = 0.305\nsamples = 32\nvalue = [6, 26]"] ;
313 -> 319 ;
320 [label="num__sqft_living <= 1.141\ngini = 0.231\nsamples = 30\nvalue = [4, 26]"] ;
319 -> 320 ;
321 [label="cat__zipcode_98199 <= 0.5\ngini = 0.444\nsamples = 12\nvalue = [4, 8]"] ;
320 -> 321 ;
322 [label="num__lat <= 0.845\ngini = 0.32\nsamples = 10\nvalue = [2, 8]"] ;
321 -> 322 ;
323 [label="gini = 0.0\nsamples = 8\nvalue = [0, 8]"] ;
322 -> 323 ;
324 [label="gini = 0.0\nsamples = 2\nvalue = [2, 0]"] ;
322 -> 324 ;
325 [label="gini = 0.0\nsamples = 2\nvalue = [2, 0]"] ;
321 -> 325 ;
326 [label="gini = 0.0\nsamples = 18\nvalue = [0, 18]"] ;
320 -> 326 ;
327 [label="gini = 0.0\nsamples = 2\nvalue = [2, 0]"] ;
319 -> 327 ;
328 [label="cat__view_4 <= 0.5\ngini = 0.202\nsamples = 184\nvalue = [163, 21]"] ;
262 -> 328 ;
329 [label="num__lat <= 1.031\ngini = 0.112\nsamples = 168\nvalue = [158, 10]"] ;
328 -> 329 ;
330 [label="num__sqft_lot15 <= -0.195\ngini = 0.367\nsamples = 33\nvalue = [25, 8]"] ;
329 -> 330 ;
331 [label="gini = 0.0\nsamples = 16\nvalue = [16, 0]"] ;
330 -> 331 ;
332 [label="num__grade <= 0.73\ngini = 0.498\nsamples = 17\nvalue = [9, 8]"] ;
330 -> 332 ;
333 [label="gini = 0.0\nsamples = 7\nvalue = [7, 0]"] ;
332 -> 333 ;
334 [label="num__sqft_lot15 <= -0.013\ngini = 0.32\nsamples = 10\nvalue = [2, 8]"] ;
332 -> 334 ;
335 [label="gini = 0.0\nsamples = 8\nvalue = [0, 8]"] ;
334 -> 335 ;
336 [label="gini = 0.0\nsamples = 2\nvalue = [2, 0]"] ;
334 -> 336 ;
337 [label="num__sqft_basement <= 4.105\ngini = 0.029\nsamples = 135\nvalue = [133, 2]"] ;
329 -> 337 ;
338 [label="num__sqft_lot15 <= 0.347\ngini = 0.015\nsamples = 133\nvalue = [132, 1]"] ;
337 -> 338 ;
339 [label="gini = 0.0\nsamples = 127\nvalue = [127, 0]"] ;
338 -> 339 ;
340 [label="gini = 0.278\nsamples = 6\nvalue = [5, 1]"] ;
338 -> 340 ;
341 [label="gini = 0.5\nsamples = 2\nvalue = [1, 1]"] ;
337 -> 341 ;
342 [label="num__lat <= 1.47\ngini = 0.43\nsamples = 16\nvalue = [5, 11]"] ;
328 -> 342 ;
343 [label="num__sqft_living <= 2.559\ngini = 0.26\nsamples = 13\nvalue = [2, 11]"] ;
342 -> 343 ;
344 [label="num__sqft_living15 <= 2.417\ngini = 0.153\nsamples = 12\nvalue = [1, 11]"] ;
343 -> 344 ;
345 [label="gini = 0.0\nsamples = 11\nvalue = [0, 11]"] ;
344 -> 345 ;
346 [label="gini = 0.0\nsamples = 1\nvalue = [1, 0]"] ;
344 -> 346 ;
347 [label="gini = 0.0\nsamples = 1\nvalue = [1, 0]"] ;
343 -> 347 ;
348 [label="gini = 0.0\nsamples = 3\nvalue = [3, 0]"] ;
342 -> 348 ;
349 [label="cat__view_0 <= 0.5\ngini = 0.093\nsamples = 1024\nvalue = [974, 50]"] ;
227 -> 349 ;
350 [label="num__sqft_basement <= 2.108\ngini = 0.35\nsamples = 106\nvalue = [82, 24]"] ;
349 -> 350 ;
351 [label="cat__condition_5 <= 0.5\ngini = 0.108\nsamples = 70\nvalue = [66, 4]"] ;
350 -> 351 ;
352 [label="num__sqft_living15 <= 2.816\ngini = 0.083\nsamples = 69\nvalue = [66, 3]"] ;
351 -> 352 ;
353 [label="num__long <= 0.176\ngini = 0.03\nsamples = 65\nvalue = [64, 1]"] ;
352 -> 353 ;
354 [label="gini = 0.5\nsamples = 2\nvalue = [1, 1]"] ;
353 -> 354 ;
355 [label="gini = 0.0\nsamples = 63\nvalue = [63, 0]"] ;
353 -> 355 ;
356 [label="gini = 0.5\nsamples = 4\nvalue = [2, 2]"] ;
352 -> 356 ;
357 [label="gini = 0.0\nsamples = 1\nvalue = [0, 1]"] ;
351 -> 357 ;
358 [label="num__sqft_living15 <= 1.392\ngini = 0.494\nsamples = 36\nvalue = [16, 20]"] ;
350 -> 358 ;
359 [label="num__bathrooms <= 2.63\ngini = 0.391\nsamples = 15\nvalue = [11, 4]"] ;
358 -> 359 ;
360 [label="num__yr_renovated <= 2.285\ngini = 0.26\nsamples = 13\nvalue = [11, 2]"] ;
359 -> 360 ;
361 [label="cat__condition_4 <= 0.5\ngini = 0.153\nsamples = 12\nvalue = [11, 1]"] ;
360 -> 361 ;
362 [label="gini = 0.0\nsamples = 9\nvalue = [9, 0]"] ;
361 -> 362 ;
363 [label="gini = 0.444\nsamples = 3\nvalue = [2, 1]"] ;
361 -> 363 ;
364 [label="gini = 0.0\nsamples = 1\nvalue = [0, 1]"] ;
360 -> 364 ;
365 [label="gini = 0.0\nsamples = 2\nvalue = [0, 2]"] ;
359 -> 365 ;
366 [label="cat__view_2 <= 0.5\ngini = 0.363\nsamples = 21\nvalue = [5, 16]"] ;
358 -> 366 ;
367 [label="num__sqft_above <= -0.526\ngini = 0.208\nsamples = 17\nvalue = [2, 15]"] ;
366 -> 367 ;
368 [label="gini = 0.0\nsamples = 1\nvalue = [1, 0]"] ;
367 -> 368 ;
369 [label="num__bathrooms <= 0.021\ngini = 0.117\nsamples = 16\nvalue = [1, 15]"] ;
367 -> 369 ;
370 [label="gini = 0.5\nsamples = 2\nvalue = [1, 1]"] ;
369 -> 370 ;
371 [label="gini = 0.0\nsamples = 14\nvalue = [0, 14]"] ;
369 -> 371 ;
372 [label="gini = 0.375\nsamples = 4\nvalue = [3, 1]"] ;
366 -> 372 ;
373 [label="num__sqft_above <= 2.807\ngini = 0.055\nsamples = 918\nvalue = [892, 26]"] ;
349 -> 373 ;
374 [label="num__sqft_living15 <= 2.499\ngini = 0.039\nsamples = 898\nvalue = [880, 18]"] ;
373 -> 374 ;
375 [label="cat__zipcode_98005 <= 0.5\ngini = 0.027\nsamples = 867\nvalue = [855, 12]"] ;
374 -> 375 ;
376 [label="num__sqft_lot <= 9.275\ngini = 0.019\nsamples = 844\nvalue = [836, 8]"] ;
375 -> 376 ;
377 [label="cat__zipcode_98006 <= 0.5\ngini = 0.016\nsamples = 842\nvalue = [835, 7]"] ;
376 -> 377 ;
378 [label="cat__zipcode_98053 <= 0.5\ngini = 0.008\nsamples = 792\nvalue = [789, 3]"] ;
377 -> 378 ;
379 [label="cat__zipcode_98072 <= 0.5\ngini = 0.003\nsamples = 743\nvalue = [742, 1]"] ;
378 -> 379 ;
380 [label="gini = 0.0\nsamples = 718\nvalue = [718, 0]"] ;
379 -> 380 ;
381 [label="num__sqft_living15 <= 0.212\ngini = 0.077\nsamples = 25\nvalue = [24, 1]"] ;
379 -> 381 ;
382 [label="gini = 0.5\nsamples = 2\nvalue = [1, 1]"] ;
381 -> 382 ;
383 [label="gini = 0.0\nsamples = 23\nvalue = [23, 0]"] ;
381 -> 383 ;
384 [label="num__sqft_lot15 <= 5.46\ngini = 0.078\nsamples = 49\nvalue = [47, 2]"] ;
378 -> 384 ;
385 [label="num__long <= 1.788\ngini = 0.042\nsamples = 47\nvalue = [46, 1]"] ;
384 -> 385 ;
386 [label="gini = 0.0\nsamples = 45\nvalue = [45, 0]"] ;
385 -> 386 ;
387 [label="gini = 0.5\nsamples = 2\nvalue = [1, 1]"] ;
385 -> 387 ;
388 [label="gini = 0.5\nsamples = 2\nvalue = [1, 1]"] ;
384 -> 388 ;
389 [label="num__sqft_lot15 <= 0.08\ngini = 0.147\nsamples = 50\nvalue = [46, 4]"] ;
377 -> 389 ;
390 [label="num__lat <= -0.088\ngini = 0.085\nsamples = 45\nvalue = [43, 2]"] ;
389 -> 390 ;
391 [label="num__sqft_lot <= -0.019\ngini = 0.219\nsamples = 16\nvalue = [14, 2]"] ;
390 -> 391 ;
392 [label="num__lat <= -0.098\ngini = 0.124\nsamples = 15\nvalue = [14, 1]"] ;
391 -> 392 ;
393 [label="gini = 0.0\nsamples = 14\nvalue = [14, 0]"] ;
392 -> 393 ;
394 [label="gini = 0.0\nsamples = 1\nvalue = [0, 1]"] ;
392 -> 394 ;
395 [label="gini = 0.0\nsamples = 1\nvalue = [0, 1]"] ;
391 -> 395 ;
396 [label="gini = 0.0\nsamples = 29\nvalue = [29, 0]"] ;
390 -> 396 ;
397 [label="gini = 0.48\nsamples = 5\nvalue = [3, 2]"] ;
389 -> 397 ;
398 [label="gini = 0.5\nsamples = 2\nvalue = [1, 1]"] ;
376 -> 398 ;
399 [label="num__sqft_lot <= -0.142\ngini = 0.287\nsamples = 23\nvalue = [19, 4]"] ;
375 -> 399 ;
400 [label="gini = 0.48\nsamples = 5\nvalue = [2, 3]"] ;
399 -> 400 ;
401 [label="num__long <= 0.438\ngini = 0.105\nsamples = 18\nvalue = [17, 1]"] ;
399 -> 401 ;
402 [label="gini = 0.0\nsamples = 17\nvalue = [17, 0]"] ;
401 -> 402 ;
403 [label="gini = 0.0\nsamples = 1\nvalue = [0, 1]"] ;
401 -> 403 ;
404 [label="num__long <= 0.576\ngini = 0.312\nsamples = 31\nvalue = [25, 6]"] ;
374 -> 404 ;
405 [label="gini = 0.0\nsamples = 3\nvalue = [0, 3]"] ;
404 -> 405 ;
406 [label="num__sqft_lot15 <= 4.522\ngini = 0.191\nsamples = 28\nvalue = [25, 3]"] ;
404 -> 406 ;
407 [label="num__lat <= 0.917\ngini = 0.137\nsamples = 27\nvalue = [25, 2]"] ;
406 -> 407 ;
408 [label="gini = 0.0\nsamples = 20\nvalue = [20, 0]"] ;
407 -> 408 ;
409 [label="gini = 0.408\nsamples = 7\nvalue = [5, 2]"] ;
407 -> 409 ;
410 [label="gini = 0.0\nsamples = 1\nvalue = [0, 1]"] ;
406 -> 410 ;
411 [label="num__long <= 1.378\ngini = 0.48\nsamples = 20\nvalue = [12, 8]"] ;
373 -> 411 ;
412 [label="num__long <= 0.636\ngini = 0.298\nsamples = 11\nvalue = [9, 2]"] ;
411 -> 412 ;
413 [label="gini = 0.444\nsamples = 3\nvalue = [1, 2]"] ;
412 -> 413 ;
414 [label="gini = 0.0\nsamples = 8\nvalue = [8, 0]"] ;
412 -> 414 ;
415 [label="gini = 0.444\nsamples = 9\nvalue = [3, 6]"] ;
411 -> 415 ;
416 [label="num__sqft_living <= 1.816\ngini = 0.499\nsamples = 1278\nvalue = [617, 661]"] ;
0 -> 416 [labeldistance=2.5, labelangle=-45, headlabel="False"] ;
417 [label="num__long <= 0.229\ngini = 0.42\nsamples = 670\nvalue = [469, 201]"] ;
416 -> 417 ;
418 [label="num__lat <= -0.382\ngini = 0.485\nsamples = 275\nvalue = [114, 161]"] ;
417 -> 418 ;
419 [label="num__sqft_lot15 <= 0.481\ngini = 0.093\nsamples = 41\nvalue = [39, 2]"] ;
418 -> 419 ;
420 [label="num__yr_renovated <= 2.278\ngini = 0.049\nsamples = 40\nvalue = [39, 1]"] ;
419 -> 420 ;
421 [label="gini = 0.0\nsamples = 39\nvalue = [39, 0]"] ;
420 -> 421 ;
422 [label="gini = 0.0\nsamples = 1\nvalue = [0, 1]"] ;
420 -> 422 ;
423 [label="gini = 0.0\nsamples = 1\nvalue = [0, 1]"] ;
419 -> 423 ;
424 [label="num__sqft_living <= 0.846\ngini = 0.436\nsamples = 234\nvalue = [75, 159]"] ;
418 -> 424 ;
425 [label="num__sqft_lot15 <= -0.261\ngini = 0.5\nsamples = 66\nvalue = [34, 32]"] ;
424 -> 425 ;
426 [label="num__yr_built <= 0.513\ngini = 0.397\nsamples = 33\nvalue = [24, 9]"] ;
425 -> 426 ;
427 [label="gini = 0.469\nsamples = 8\nvalue = [3, 5]"] ;
426 -> 427 ;
428 [label="num__sqft_lot <= -0.342\ngini = 0.269\nsamples = 25\nvalue = [21, 4]"] ;
426 -> 428 ;
429 [label="gini = 0.0\nsamples = 1\nvalue = [0, 1]"] ;
428 -> 429 ;
430 [label="num__sqft_living <= 0.402\ngini = 0.219\nsamples = 24\nvalue = [21, 3]"] ;
428 -> 430 ;
431 [label="num__sqft_living <= 0.085\ngini = 0.397\nsamples = 11\nvalue = [8, 3]"] ;
430 -> 431 ;
432 [label="gini = 0.0\nsamples = 7\nvalue = [7, 0]"] ;
431 -> 432 ;
433 [label="gini = 0.375\nsamples = 4\nvalue = [1, 3]"] ;
431 -> 433 ;
434 [label="gini = 0.0\nsamples = 13\nvalue = [13, 0]"] ;
430 -> 434 ;
435 [label="num__sqft_lot15 <= -0.082\ngini = 0.422\nsamples = 33\nvalue = [10, 23]"] ;
425 -> 435 ;
436 [label="num__sqft_above <= -0.192\ngini = 0.111\nsamples = 17\nvalue = [1, 16]"] ;
435 -> 436 ;
437 [label="gini = 0.0\nsamples = 1\nvalue = [1, 0]"] ;
436 -> 437 ;
438 [label="gini = 0.0\nsamples = 16\nvalue = [0, 16]"] ;
436 -> 438 ;
439 [label="num__floors <= 0.476\ngini = 0.492\nsamples = 16\nvalue = [9, 7]"] ;
435 -> 439 ;
440 [label="gini = 0.0\nsamples = 4\nvalue = [0, 4]"] ;
439 -> 440 ;
441 [label="num__bathrooms <= 0.673\ngini = 0.375\nsamples = 12\nvalue = [9, 3]"] ;
439 -> 441 ;
442 [label="gini = 0.0\nsamples = 9\nvalue = [9, 0]"] ;
441 -> 442 ;
443 [label="gini = 0.0\nsamples = 3\nvalue = [0, 3]"] ;
441 -> 443 ;
444 [label="num__lat <= 0.948\ngini = 0.369\nsamples = 168\nvalue = [41, 127]"] ;
424 -> 444 ;
445 [label="num__lat <= 0.027\ngini = 0.298\nsamples = 143\nvalue = [26, 117]"] ;
444 -> 445 ;
446 [label="num__sqft_lot15 <= -0.187\ngini = 0.492\nsamples = 32\nvalue = [14, 18]"] ;
445 -> 446 ;
447 [label="gini = 0.0\nsamples = 6\nvalue = [6, 0]"] ;
446 -> 447 ;
448 [label="cat__view_0 <= 0.5\ngini = 0.426\nsamples = 26\nvalue = [8, 18]"] ;
446 -> 448 ;
449 [label="gini = 0.0\nsamples = 9\nvalue = [0, 9]"] ;
448 -> 449 ;
450 [label="num__bathrooms <= 0.347\ngini = 0.498\nsamples = 17\nvalue = [8, 9]"] ;
448 -> 450 ;
451 [label="gini = 0.0\nsamples = 4\nvalue = [4, 0]"] ;
450 -> 451 ;
452 [label="num__sqft_living15 <= 1.702\ngini = 0.426\nsamples = 13\nvalue = [4, 9]"] ;
450 -> 452 ;
453 [label="gini = 0.0\nsamples = 6\nvalue = [0, 6]"] ;
452 -> 453 ;
454 [label="gini = 0.49\nsamples = 7\nvalue = [4, 3]"] ;
452 -> 454 ;
455 [label="num__long <= 0.152\ngini = 0.193\nsamples = 111\nvalue = [12, 99]"] ;
445 -> 455 ;
456 [label="num__sqft_basement <= 2.966\ngini = 0.133\nsamples = 98\nvalue = [7, 91]"] ;
455 -> 456 ;
457 [label="num__yr_built <= 1.482\ngini = 0.116\nsamples = 97\nvalue = [6, 91]"] ;
456 -> 457 ;
458 [label="cat__zipcode_98115 <= 0.5\ngini = 0.1\nsamples = 95\nvalue = [5, 90]"] ;
457 -> 458 ;
459 [label="cat__zipcode_98122 <= 0.5\ngini = 0.081\nsamples = 94\nvalue = [4, 90]"] ;
458 -> 459 ;
460 [label="cat__zipcode_98199 <= 0.5\ngini = 0.063\nsamples = 92\nvalue = [3, 89]"] ;
459 -> 460 ;
461 [label="num__sqft_lot15 <= -0.329\ngini = 0.026\nsamples = 75\nvalue = [1, 74]"] ;
460 -> 461 ;
462 [label="gini = 0.32\nsamples = 5\nvalue = [1, 4]"] ;
461 -> 462 ;
463 [label="gini = 0.0\nsamples = 70\nvalue = [0, 70]"] ;
461 -> 463 ;
464 [label="num__yr_built <= 1.312\ngini = 0.208\nsamples = 17\nvalue = [2, 15]"] ;
460 -> 464 ;
465 [label="num__lat <= 0.61\ngini = 0.117\nsamples = 16\nvalue = [1, 15]"] ;
464 -> 465 ;
466 [label="gini = 0.0\nsamples = 13\nvalue = [0, 13]"] ;
465 -> 466 ;
467 [label="gini = 0.444\nsamples = 3\nvalue = [1, 2]"] ;
465 -> 467 ;
468 [label="gini = 0.0\nsamples = 1\nvalue = [1, 0]"] ;
464 -> 468 ;
469 [label="gini = 0.5\nsamples = 2\nvalue = [1, 1]"] ;
459 -> 469 ;
470 [label="gini = 0.0\nsamples = 1\nvalue = [1, 0]"] ;
458 -> 470 ;
471 [label="gini = 0.5\nsamples = 2\nvalue = [1, 1]"] ;
457 -> 471 ;
472 [label="gini = 0.0\nsamples = 1\nvalue = [1, 0]"] ;
456 -> 472 ;
473 [label="num__sqft_lot <= 0.044\ngini = 0.473\nsamples = 13\nvalue = [5, 8]"] ;
455 -> 473 ;
474 [label="gini = 0.469\nsamples = 8\nvalue = [5, 3]"] ;
473 -> 474 ;
475 [label="gini = 0.0\nsamples = 5\nvalue = [0, 5]"] ;
473 -> 475 ;
476 [label="cat__view_4 <= 0.5\ngini = 0.48\nsamples = 25\nvalue = [15, 10]"] ;
444 -> 476 ;
477 [label="num__bathrooms <= 0.673\ngini = 0.332\nsamples = 19\nvalue = [15, 4]"] ;
476 -> 477 ;
478 [label="gini = 0.48\nsamples = 5\nvalue = [2, 3]"] ;
477 -> 478 ;
479 [label="num__grade <= 2.444\ngini = 0.133\nsamples = 14\nvalue = [13, 1]"] ;
477 -> 479 ;
480 [label="gini = 0.0\nsamples = 12\nvalue = [12, 0]"] ;
479 -> 480 ;
481 [label="gini = 0.5\nsamples = 2\nvalue = [1, 1]"] ;
479 -> 481 ;
482 [label="gini = 0.0\nsamples = 6\nvalue = [0, 6]"] ;
476 -> 482 ;
483 [label="cat__view_0 <= 0.5\ngini = 0.182\nsamples = 395\nvalue = [355, 40]"] ;
417 -> 483 ;
484 [label="num__floors <= -0.45\ngini = 0.5\nsamples = 43\nvalue = [22, 21]"] ;
483 -> 484 ;
485 [label="num__sqft_lot15 <= 0.122\ngini = 0.278\nsamples = 12\nvalue = [2, 10]"] ;
484 -> 485 ;
486 [label="gini = 0.0\nsamples = 10\nvalue = [0, 10]"] ;
485 -> 486 ;
487 [label="gini = 0.0\nsamples = 2\nvalue = [2, 0]"] ;
485 -> 487 ;
488 [label="num__lat <= -0.022\ngini = 0.458\nsamples = 31\nvalue = [20, 11]"] ;
484 -> 488 ;
489 [label="cat__zipcode_98059 <= 0.5\ngini = 0.153\nsamples = 12\nvalue = [11, 1]"] ;
488 -> 489 ;
490 [label="gini = 0.0\nsamples = 11\nvalue = [11, 0]"] ;
489 -> 490 ;
491 [label="gini = 0.0\nsamples = 1\nvalue = [0, 1]"] ;
489 -> 491 ;
492 [label="num__long <= 0.738\ngini = 0.499\nsamples = 19\nvalue = [9, 10]"] ;
488 -> 492 ;
493 [label="gini = 0.346\nsamples = 9\nvalue = [2, 7]"] ;
492 -> 493 ;
494 [label="cat__waterfront_1 <= 0.5\ngini = 0.42\nsamples = 10\nvalue = [7, 3]"] ;
492 -> 494 ;
495 [label="gini = 0.0\nsamples = 7\nvalue = [7, 0]"] ;
494 -> 495 ;
496 [label="gini = 0.0\nsamples = 3\nvalue = [0, 3]"] ;
494 -> 496 ;
497 [label="num__long <= 0.682\ngini = 0.102\nsamples = 352\nvalue = [333, 19]"] ;
483 -> 497 ;
498 [label="num__lat <= -0.112\ngini = 0.336\nsamples = 75\nvalue = [59, 16]"] ;
497 -> 498 ;
499 [label="gini = 0.0\nsamples = 24\nvalue = [24, 0]"] ;
498 -> 499 ;
500 [label="num__lat <= -0.057\ngini = 0.431\nsamples = 51\nvalue = [35, 16]"] ;
498 -> 500 ;
501 [label="gini = 0.0\nsamples = 5\nvalue = [0, 5]"] ;
500 -> 501 ;
502 [label="num__yr_built <= 1.091\ngini = 0.364\nsamples = 46\nvalue = [35, 11]"] ;
500 -> 502 ;
503 [label="num__sqft_lot <= 1.725\ngini = 0.283\nsamples = 41\nvalue = [34, 7]"] ;
502 -> 503 ;
504 [label="num__long <= 0.357\ngini = 0.224\nsamples = 39\nvalue = [34, 5]"] ;
503 -> 504 ;
505 [label="gini = 0.444\nsamples = 3\nvalue = [1, 2]"] ;
504 -> 505 ;
506 [label="num__yr_built <= 0.938\ngini = 0.153\nsamples = 36\nvalue = [33, 3]"] ;
504 -> 506 ;
507 [label="gini = 0.0\nsamples = 28\nvalue = [28, 0]"] ;
506 -> 507 ;
508 [label="gini = 0.469\nsamples = 8\nvalue = [5, 3]"] ;
506 -> 508 ;
509 [label="gini = 0.0\nsamples = 2\nvalue = [0, 2]"] ;
503 -> 509 ;
510 [label="gini = 0.32\nsamples = 5\nvalue = [1, 4]"] ;
502 -> 510 ;
511 [label="num__yr_built <= 1.448\ngini = 0.021\nsamples = 277\nvalue = [274, 3]"] ;
497 -> 511 ;
512 [label="num__bedrooms <= -0.955\ngini = 0.007\nsamples = 270\nvalue = [269, 1]"] ;
511 -> 512 ;
513 [label="gini = 0.5\nsamples = 2\nvalue = [1, 1]"] ;
512 -> 513 ;
514 [label="gini = 0.0\nsamples = 268\nvalue = [268, 0]"] ;
512 -> 514 ;
515 [label="gini = 0.408\nsamples = 7\nvalue = [5, 2]"] ;
511 -> 515 ;
516 [label="num__lat <= -0.393\ngini = 0.368\nsamples = 608\nvalue = [148, 460]"] ;
416 -> 516 ;
517 [label="num__sqft_above <= 4.292\ngini = 0.346\nsamples = 63\nvalue = [49, 14]"] ;
516 -> 517 ;
518 [label="num__sqft_lot15 <= 8.189\ngini = 0.241\nsamples = 57\nvalue = [49, 8]"] ;
517 -> 518 ;
519 [label="num__sqft_above <= 3.476\ngini = 0.171\nsamples = 53\nvalue = [48, 5]"] ;
518 -> 519 ;
520 [label="num__bathrooms <= 3.445\ngini = 0.083\nsamples = 46\nvalue = [44, 2]"] ;
519 -> 520 ;
521 [label="num__sqft_lot <= 7.428\ngini = 0.045\nsamples = 43\nvalue = [42, 1]"] ;
520 -> 521 ;
522 [label="gini = 0.0\nsamples = 39\nvalue = [39, 0]"] ;
521 -> 522 ;
523 [label="gini = 0.375\nsamples = 4\nvalue = [3, 1]"] ;
521 -> 523 ;
524 [label="gini = 0.444\nsamples = 3\nvalue = [2, 1]"] ;
520 -> 524 ;
525 [label="gini = 0.49\nsamples = 7\nvalue = [4, 3]"] ;
519 -> 525 ;
526 [label="gini = 0.375\nsamples = 4\nvalue = [1, 3]"] ;
518 -> 526 ;
527 [label="gini = 0.0\nsamples = 6\nvalue = [0, 6]"] ;
517 -> 527 ;
528 [label="num__long <= 0.858\ngini = 0.297\nsamples = 545\nvalue = [99, 446]"] ;
516 -> 528 ;
529 [label="num__long <= 0.212\ngini = 0.148\nsamples = 373\nvalue = [30, 343]"] ;
528 -> 529 ;
530 [label="cat__zipcode_98117 <= 0.5\ngini = 0.055\nsamples = 246\nvalue = [7, 239]"] ;
529 -> 530 ;
531 [label="num__bathrooms <= -0.142\ngini = 0.048\nsamples = 245\nvalue = [6, 239]"] ;
530 -> 531 ;
532 [label="gini = 0.0\nsamples = 1\nvalue = [1, 0]"] ;
531 -> 532 ;
533 [label="num__sqft_lot <= -0.279\ngini = 0.04\nsamples = 244\nvalue = [5, 239]"] ;
531 -> 533 ;
534 [label="gini = 0.0\nsamples = 1\nvalue = [1, 0]"] ;
533 -> 534 ;
535 [label="cat__zipcode_98028 <= 0.5\ngini = 0.032\nsamples = 243\nvalue = [4, 239]"] ;
533 -> 535 ;
536 [label="cat__zipcode_98006 <= 0.5\ngini = 0.025\nsamples = 241\nvalue = [3, 238]"] ;
535 -> 536 ;
537 [label="num__sqft_living <= 1.853\ngini = 0.017\nsamples = 237\nvalue = [2, 235]"] ;
536 -> 537 ;
538 [label="gini = 0.32\nsamples = 5\nvalue = [1, 4]"] ;
537 -> 538 ;
539 [label="cat__zipcode_98177 <= 0.5\ngini = 0.009\nsamples = 232\nvalue = [1, 231]"] ;
537 -> 539 ;
540 [label="gini = 0.0\nsamples = 222\nvalue = [0, 222]"] ;
539 -> 540 ;
541 [label="num__sqft_lot <= -0.05\ngini = 0.18\nsamples = 10\nvalue = [1, 9]"] ;
539 -> 541 ;
542 [label="gini = 0.0\nsamples = 1\nvalue = [1, 0]"] ;
541 -> 542 ;
543 [label="gini = 0.0\nsamples = 9\nvalue = [0, 9]"] ;
541 -> 543 ;
544 [label="gini = 0.375\nsamples = 4\nvalue = [1, 3]"] ;
536 -> 544 ;
545 [label="gini = 0.5\nsamples = 2\nvalue = [1, 1]"] ;
535 -> 545 ;
546 [label="gini = 0.0\nsamples = 1\nvalue = [1, 0]"] ;
530 -> 546 ;
547 [label="num__grade <= 2.444\ngini = 0.297\nsamples = 127\nvalue = [23, 104]"] ;
529 -> 547 ;
548 [label="num__bathrooms <= 0.999\ngini = 0.457\nsamples = 51\nvalue = [18, 33]"] ;
547 -> 548 ;
549 [label="num__sqft_lot <= -0.107\ngini = 0.278\nsamples = 12\nvalue = [10, 2]"] ;
548 -> 549 ;
550 [label="gini = 0.444\nsamples = 3\nvalue = [1, 2]"] ;
549 -> 550 ;
551 [label="gini = 0.0\nsamples = 9\nvalue = [9, 0]"] ;
549 -> 551 ;
552 [label="cat__zipcode_98034 <= 0.5\ngini = 0.326\nsamples = 39\nvalue = [8, 31]"] ;
548 -> 552 ;
553 [label="cat__zipcode_98005 <= 0.5\ngini = 0.272\nsamples = 37\nvalue = [6, 31]"] ;
552 -> 553 ;
554 [label="num__bathrooms <= 2.956\ngini = 0.17\nsamples = 32\nvalue = [3, 29]"] ;
553 -> 554 ;
555 [label="num__bedrooms <= 0.149\ngini = 0.069\nsamples = 28\nvalue = [1, 27]"] ;
554 -> 555 ;
556 [label="gini = 0.5\nsamples = 2\nvalue = [1, 1]"] ;
555 -> 556 ;
557 [label="gini = 0.0\nsamples = 26\nvalue = [0, 26]"] ;
555 -> 557 ;
558 [label="gini = 0.5\nsamples = 4\nvalue = [2, 2]"] ;
554 -> 558 ;
559 [label="gini = 0.48\nsamples = 5\nvalue = [3, 2]"] ;
553 -> 559 ;
560 [label="gini = 0.0\nsamples = 2\nvalue = [2, 0]"] ;
552 -> 560 ;
561 [label="num__bathrooms <= 4.75\ngini = 0.123\nsamples = 76\nvalue = [5, 71]"] ;
547 -> 561 ;
562 [label="num__sqft_lot <= -0.161\ngini = 0.101\nsamples = 75\nvalue = [4, 71]"] ;
561 -> 562 ;
563 [label="gini = 0.0\nsamples = 1\nvalue = [1, 0]"] ;
562 -> 563 ;
564 [label="num__yr_built <= 0.564\ngini = 0.078\nsamples = 74\nvalue = [3, 71]"] ;
562 -> 564 ;
565 [label="gini = 0.346\nsamples = 9\nvalue = [2, 7]"] ;
564 -> 565 ;
566 [label="num__lat <= -0.247\ngini = 0.03\nsamples = 65\nvalue = [1, 64]"] ;
564 -> 566 ;
567 [label="gini = 0.219\nsamples = 8\nvalue = [1, 7]"] ;
566 -> 567 ;
568 [label="gini = 0.0\nsamples = 57\nvalue = [0, 57]"] ;
566 -> 568 ;
569 [label="gini = 0.0\nsamples = 1\nvalue = [1, 0]"] ;
561 -> 569 ;
570 [label="num__grade <= 2.444\ngini = 0.48\nsamples = 172\nvalue = [69, 103]"] ;
528 -> 570 ;
571 [label="num__bathrooms <= 2.304\ngini = 0.459\nsamples = 87\nvalue = [56, 31]"] ;
570 -> 571 ;
572 [label="num__yr_built <= 1.21\ngini = 0.367\nsamples = 66\nvalue = [50, 16]"] ;
571 -> 572 ;
573 [label="cat__condition_4 <= 0.5\ngini = 0.245\nsamples = 49\nvalue = [42, 7]"] ;
572 -> 573 ;
574 [label="num__sqft_living <= 1.831\ngini = 0.19\nsamples = 47\nvalue = [42, 5]"] ;
573 -> 574 ;
575 [label="gini = 0.0\nsamples = 1\nvalue = [0, 1]"] ;
574 -> 575 ;
576 [label="num__sqft_lot15 <= 1.336\ngini = 0.159\nsamples = 46\nvalue = [42, 4]"] ;
574 -> 576 ;
577 [label="num__sqft_living15 <= 3.0\ngini = 0.095\nsamples = 40\nvalue = [38, 2]"] ;
576 -> 577 ;
578 [label="gini = 0.0\nsamples = 34\nvalue = [34, 0]"] ;
577 -> 578 ;
579 [label="gini = 0.444\nsamples = 6\nvalue = [4, 2]"] ;
577 -> 579 ;
580 [label="gini = 0.444\nsamples = 6\nvalue = [4, 2]"] ;
576 -> 580 ;
581 [label="gini = 0.0\nsamples = 2\nvalue = [0, 2]"] ;
573 -> 581 ;
582 [label="num__sqft_living <= 2.313\ngini = 0.498\nsamples = 17\nvalue = [8, 9]"] ;
572 -> 582 ;
583 [label="num__sqft_lot <= -0.141\ngini = 0.397\nsamples = 11\nvalue = [8, 3]"] ;
582 -> 583 ;
584 [label="gini = 0.0\nsamples = 7\nvalue = [7, 0]"] ;
583 -> 584 ;
585 [label="gini = 0.375\nsamples = 4\nvalue = [1, 3]"] ;
583 -> 585 ;
586 [label="gini = 0.0\nsamples = 6\nvalue = [0, 6]"] ;
582 -> 586 ;
587 [label="num__bedrooms <= 0.149\ngini = 0.408\nsamples = 21\nvalue = [6, 15]"] ;
571 -> 587 ;
588 [label="gini = 0.0\nsamples = 2\nvalue = [2, 0]"] ;
587 -> 588 ;
589 [label="num__sqft_living15 <= 2.063\ngini = 0.332\nsamples = 19\nvalue = [4, 15]"] ;
587 -> 589 ;
590 [label="gini = 0.0\nsamples = 9\nvalue = [0, 9]"] ;
589 -> 590 ;
591 [label="num__long <= 1.325\ngini = 0.48\nsamples = 10\nvalue = [4, 6]"] ;
589 -> 591 ;
592 [label="gini = 0.375\nsamples = 4\nvalue = [3, 1]"] ;
591 -> 592 ;
593 [label="gini = 0.278\nsamples = 6\nvalue = [1, 5]"] ;
591 -> 593 ;
594 [label="num__sqft_living <= 2.26\ngini = 0.259\nsamples = 85\nvalue = [13, 72]"] ;
570 -> 594 ;
595 [label="num__sqft_living15 <= 3.317\ngini = 0.5\nsamples = 14\nvalue = [7, 7]"] ;
594 -> 595 ;
596 [label="num__sqft_lot <= 1.304\ngini = 0.42\nsamples = 10\nvalue = [7, 3]"] ;
595 -> 596 ;
597 [label="gini = 0.0\nsamples = 6\nvalue = [6, 0]"] ;
596 -> 597 ;
598 [label="gini = 0.375\nsamples = 4\nvalue = [1, 3]"] ;
596 -> 598 ;
599 [label="gini = 0.0\nsamples = 4\nvalue = [0, 4]"] ;
595 -> 599 ;
600 [label="num__lat <= 1.214\ngini = 0.155\nsamples = 71\nvalue = [6, 65]"] ;
594 -> 600 ;
601 [label="num__sqft_lot15 <= 31.074\ngini = 0.088\nsamples = 65\nvalue = [3, 62]"] ;
600 -> 601 ;
602 [label="num__sqft_above <= 1.852\ngini = 0.061\nsamples = 64\nvalue = [2, 62]"] ;
601 -> 602 ;
603 [label="gini = 0.375\nsamples = 4\nvalue = [1, 3]"] ;
602 -> 603 ;
604 [label="num__sqft_lot <= -0.0\ngini = 0.033\nsamples = 60\nvalue = [1, 59]"] ;
602 -> 604 ;
605 [label="num__sqft_lot <= -0.008\ngini = 0.153\nsamples = 12\nvalue = [1, 11]"] ;
604 -> 605 ;
606 [label="gini = 0.0\nsamples = 11\nvalue = [0, 11]"] ;
605 -> 606 ;
607 [label="gini = 0.0\nsamples = 1\nvalue = [1, 0]"] ;
605 -> 607 ;
608 [label="gini = 0.0\nsamples = 48\nvalue = [0, 48]"] ;
604 -> 608 ;
609 [label="gini = 0.0\nsamples = 1\nvalue = [1, 0]"] ;
601 -> 609 ;
610 [label="gini = 0.5\nsamples = 6\nvalue = [3, 3]"] ;
600 -> 610 ;
}